svm_type c_svc
kernel_type rbf
gamma 0.03125
nr_class 4
total_sv 41
rho 0.58399907196214251 0.33077527506834925 0.082053799735989266 -0.20524433468619591 -0.22175086557997656 0.0048142892371697346
label 8 10 12 13
nr_sv 10 9 11 11
SV
2 1.0325108554012161 0.48638026227235986 1:-0.505198 2:0.115032 3:-0.158719 4:-0.659677 5:-0.601064 6:-0.35756 7:-0.741711 8:0.040716 9:-0.196487 10:-1 11:-0.908492 12:0.0696036 13:0.0361601 14:-0.409938 15:-0.635611 16:-0.409008 17:-0.098377 18:0.267079 19:-0.403726 20:-0.618282 21:-0.674974 22:-1 23:-1 24:-0.155557 25:0.508475 26:-0.0852095 27:0.159332 28:-0.420998 29:-0.724504 30:-0.259316 31:-0.502415 32:-0.218166 33:-0.243838 34:-1 35:-1 36:-0.796478 37:0.834659 38:-1 39:-1 40:-0.951041 41:0.959965 
2 0 0 1:-0.922128 2:0.228386 3:-0.21851 4:-0.270564 5:-0.697849 6:-0.662975 7:-0.947394 8:-0.534051 9:0.631785 10:-0.910525 11:0.394074 12:-0.0741599 13:-0.805493 14:-0.52573 15:-0.913978 16:-0.730759 17:0.4308 18:-0.240696 19:-0.0442062 20:-0.158953 21:-0.54553 22:-1 23:-1 24:-1 25:0.985561 26:-0.49786 27:-0.838144 28:-0.0262799 29:-0.132847 30:-0.96947 31:-0.415472 32:-0.131721 33:0.344433 34:-1 35:-1 36:-1 37:0.987783 38:-1 39:-1 40:-1 41:0.988288 
0 1.247166664138585 0.14247828879339297 1:-0.857998 2:1 3:0.0580058 4:-0.897681 5:-0.790103 6:-0.672227 7:-0.952036 8:-0.811184 9:1 10:-0.691809 11:0.174776 12:-0.20275 13:-0.697858 14:-0.645192 15:-0.947713 16:-0.754516 17:0.554923 18:1 19:-0.0472036 20:-0.963484 21:-0.776372 22:-1 23:-1 24:-0.74937 25:0.849721 26:-0.859128 27:-0.76388 28:-0.0773802 29:0.0673629 30:-0.703082 31:-0.9626 32:-0.254903 33:0.849464 34:-1 35:-1 36:0.581521 37:-0.264537 38:-1 39:-1 40:0.579905 41:-0.211803 
1.6744860187733004 2 2 1:-1 2:0.213539 3:0.10119 4:-0.598595 5:-0.577986 6:-0.292767 7:-0.862012 8:0.437037 9:-0.464164 10:-0.28879 11:-0.773341 12:-0.963204 13:-0.989693 14:-0.30403 15:-0.835897 16:0.104302 17:-0.42101 18:0.247338 19:-0.08832 20:-0.441304 21:-0.576827 22:-1 23:-1 24:-1 25:0.996851 26:-0.244712 27:0.0498242 28:-0.453659 29:-0.53474 30:-0.257419 31:-0.0169507 32:-0.48846 33:-0.493797 34:-1 35:-0.98052 36:-0.651 37:0.710557 38:-1 39:-1 40:-1 41:0.999594 
0.39157505924166752 0 0 1:-1 2:0.258317 3:-0.197261 4:-0.792732 5:-0.268424 6:-0.0333383 7:-0.611357 8:-0.00104 9:-0.546615 10:-0.50747 11:0.652282 12:-0.720591 13:-0.718238 14:0.220793 15:-0.676013 16:-0.216057 17:-0.594889 18:0.0815961 19:-0.0363449 20:-0.817249 21:-0.228794 22:-1 23:-1 24:-1 25:0.997764 26:0.42682 27:-0.0433847 28:-0.63907 29:-0.707944 30:-0.15087 31:-0.144342 32:-0.389603 33:-0.538739 34:-1 35:-1 36:-1 37:1 38:-1 39:-1 40:-0.938611 41:0.953549 
1.093905447590434 2 2 1:-0.961682 2:0.122539 3:0.852799 4:-0.696291 5:-0.936281 6:-0.751244 7:0.242492 8:-0.205175 9:-0.710415 10:-0.809215 11:0.309584 12:0.0250357 13:-0.893656 14:0.184805 15:0.142856 16:-0.774778 17:-0.743984 18:-0.750916 19:0.0911218 20:-0.320106 21:-0.254572 22:-1 23:-1 24:-0.815554 25:0.890326 26:0.330455 27:0.258366 28:-0.647697 29:-0.850657 30:-0.369049 31:-0.0462971 32:-0.61045 33:-0.146954 34:-1 35:-1 36:0.20026 37:0.0419068 38:-1 39:-0.765757 40:0.779439 41:-0.48955 
0.37966721646591373 2 1.3935497481840651 1:-0.606001 2:0.183833 3:-0.418023 4:-0.378133 5:-0.636011 6:-0.301678 7:-0.150818 8:-0.73057 9:-0.316822 10:-0.755683 11:1 12:-0.578655 13:-0.927102 14:-0.648409 15:0.395509 16:-0.831341 17:-0.394117 18:0.524511 19:-0.263097 20:-0.638149 21:-0.979143 22:0.530546 23:-1 24:-0.0968838 25:0.0815693 26:0.861261 27:-0.142079 28:-0.627399 29:-0.937322 30:-0.440971 31:-0.0808851 32:-0.335491 33:-0.352165 34:-1 35:-0.980318 36:-0.124991 37:0.291007 38:-1 39:-0.980884 40:0.374987 41:-0.0627411 
1.623943254532128 0 0 1:-1 2:0.0200002 3:0.281559 4:-0.437687 5:-0.723153 6:-0.000255448 7:-0.768037 8:-0.800766 9:0.265349 10:-1 11:-1 12:1 13:-0.68812 14:-0.00554393 15:-0.747126 16:-0.827315 17:0.0254456 18:0.149865 19:0.195403 20:-0.831428 21:-0.392733 22:-1 23:-1 24:-1 25:0.972538 26:-0.659357 27:0.115971 28:-0.311185 29:-0.461208 30:-0.877617 31:0.208574 32:-0.508619 33:0.0495013 34:-1 35:-1 36:-0.652338 37:0.71491 38:-1 39:-1 40:-0.524342 41:0.628713 
0 0 1.3032155651586088 1:-0.658392 2:-0.0762267 3:0.0804139 4:-0.573349 5:-0.633917 6:-1 7:-0.769231 8:0.235499 9:0.173492 10:-0.808107 11:0.612273 12:-0.232833 13:-0.886232 14:-0.82929 15:-0.849057 16:0.118111 17:-0.112395 18:0.455732 19:0.207548 20:-0.648619 21:-0.759493 22:-1 23:-1 24:-0.912301 25:0.944025 26:-0.593331 27:-0.147964 28:-0.19595 29:-0.454758 30:-0.57143 31:-0.334208 32:-0.432389 33:0.220937 34:-1 35:-1 36:-0.540277 37:0.63026 38:-1 39:-1 40:-0.818227 41:0.85821 
2 0.63151227465231086 1.5879031842794118 1:-1 2:-0.618128 3:-0.528061 4:0.105348 5:-0.327657 6:-1 7:-0.602348 8:-0.601533 9:0.727981 10:-1 11:-1 12:-1 13:1 14:-0.966573 15:-0.500821 16:-0.765641 17:0.420228 18:-0.342932 19:-0.43952 20:0.279771 21:-0.583587 22:-1 23:-1 24:-1 25:0.997256 26:-0.292172 27:-0.629245 28:-0.50143 29:-0.036627 30:-0.972027 31:-0.25301 32:-0.450123 33:0.620849 34:-1 35:-1 36:-1 37:0.999492 38:-1 39:-1 40:-1 41:1 
-2 0.93786513667111993 1.9431611025395696 1:-1 2:0.574737 3:0.622808 4:-0.862677 5:-0.894361 6:-1 7:-1 8:-0.0877211 9:0.658537 10:-1 11:-0.741529 12:-0.118828 13:0.0578429 14:-1 15:0.263157 16:0.186075 17:-0.929259 18:-0.793522 19:-1 20:0.617277 21:-0.293805 22:-1 23:-1 24:-1 25:0.97193 26:-1 27:0.478854 28:0.21489 29:-0.929259 30:-1 31:-0.849415 32:1 33:-0.711375 34:-1 35:-1 36:-1 37:0.974137 38:-1 39:-1 40:-0.262469 41:0.410456 
-2 1.8966275426222261 1.9714022185114175 1:-0.786997 2:0.839999 3:-0.805672 4:-0.744202 5:-0.370309 6:-0.631256 7:-0.424435 8:-0.830066 9:0.414632 10:0.0877342 11:-0.422243 12:-0.484133 13:-0.842361 14:-0.467787 15:0.725491 16:-0.803613 17:-0.80234 18:-1 19:-0.79085 20:-0.342711 21:0.381237 22:-1 23:-1 24:-0.45317 25:0.652941 26:0.267846 27:0.298659 28:-1 29:-0.762808 30:-1 31:-0.326798 32:-0.674019 33:1 34:-1 35:-1 36:-0.752887 37:0.772991 38:-1 39:-1 40:-1 41:0.970491 
-1.5106486556099328 0.47127641783082014 0.68875436683523628 1:-0.855158 2:0.3056 3:-0.127857 4:-0.833015 5:-0.389828 6:-0.824478 7:-0.2368 8:0.0631106 9:-0.363122 10:-0.600584 11:0.155054 12:-0.253773 13:-0.80705 14:-1 15:-1 16:-1 17:1 18:-1 19:-1 20:-1 21:0.996556 22:-1 23:-1 24:-1 25:0.991086 26:-1 27:-1 28:-0.382088 29:0.532258 30:-0.977286 31:0.876889 32:-0.316 33:-0.868387 34:-1 35:-1 36:-1 37:0.993315 38:-1 39:-1 40:-0.768784 41:0.81695 
-0.89948680643530554 0 0 1:-1 2:-0.648276 3:-0.401941 4:-0.527658 5:0.0900856 6:-1 7:0.433953 8:-0.800766 9:-0.163583 10:-1 11:-1 12:-0.237112 13:0.351485 14:-1 15:-1 16:-1 17:0.998748 18:-1 19:-1 20:-1 21:0.995306 22:-1 23:-1 24:-1 25:0.98984 26:-1 27:0.245734 28:0.125063 29:-0.687153 30:-0.755234 31:-0.112068 32:0.0646558 33:-0.517797 34:-1 35:-1 36:-1 37:0.992067 38:-1 39:-1 40:-0.614942 41:0.69802 
-0.75344153455820517 0 0.52164708741384902 1:-1 2:-0.86944 3:-0.497857 4:0.0645279 5:-0.197143 6:-1 7:-0.608615 8:0.848888 9:-0.522342 10:-1 11:-1 12:-1 13:0.897346 14:-1 15:-1 16:-1 17:1 18:-1 19:-1 20:-1 21:0.996556 22:-1 23:-1 24:-1 25:0.975029 26:-1 27:-1 28:-1 29:1 30:-1 31:-0.359111 32:0.368 33:-0.368258 34:-1 35:-1 36:-1 37:0.993315 38:-1 39:-1 40:-1 41:0.993822 
-2 1.1545309208267494 1.3142490671972265 1:-0.0502167 2:-0.565247 3:-0.647981 4:-0.593658 5:-0.276112 6:0.592857 7:-0.759395 8:-0.194899 9:-0.734907 10:-1 11:-1 12:-0.882373 13:0.894579 14:-1 15:-0.1694 16:-0.261133 17:-0.223294 18:0.511349 19:-0.358834 20:-0.679437 21:-0.389603 22:-1 23:-1 24:-1 25:0.990691 26:-1 27:-0.950647 28:0.157056 29:0.0906935 30:-0.325088 31:0.0318771 32:-0.201843 33:-0.811211 34:-1 35:-1 36:-1 37:0.992919 38:-1 39:-1 40:-0.784635 41:0.82868 
-2 0.92041888623705659 0.9564681196384035 1:-0.28296 2:-0.313267 3:-0.836457 4:-0.690003 5:-0.0858546 6:0.458551 7:-0.636709 8:-0.828383 9:-0.211784 10:-1 11:-1 12:0.98918 13:-0.6816 14:-1 15:-0.788779 16:-0.00834062 17:0.038006 18:-1 19:0.302532 20:0.189304 21:-0.601454 22:-1 23:-1 24:-1 25:0.987271 26:-1 27:-0.403856 28:0.371261 29:-0.441073 30:-0.718883 31:0.501374 32:-0.482673 33:-0.511338 34:-1 35:-1 36:-1 37:0.989495 38:-1 39:-1 40:-1 41:0.990001 
-0 0.1559704894464389 0 1:-1 2:-1 3:-1 4:-0.782572 5:0.823155 6:0.0186571 7:0.365769 8:-0.855556 9:-0.854878 10:-1 11:-1 12:-1 13:0.993152 14:-1 15:1 16:-0.916536 17:-0.579974 18:-1 19:-1 20:-1 21:0.995886 22:-1 23:-1 24:-1 25:0.990418 26:-1 27:-1 28:-1 29:0.999329 30:-0.313839 31:0.835881 32:-0.88125 33:-0.808065 34:-1 35:-1 36:-1 37:0.992646 38:-1 39:-1 40:-1 41:0.993152 
-0 0.69222284699547776 1.2792834696639486 1:-1 2:-1 3:-1 4:-0.638987 5:0.716802 6:-0.980287 7:1 8:-0.654787 9:-0.874827 10:-1 11:-0.796149 12:-0.262919 13:0.238806 14:-1 15:-1 16:1 17:-0.606917 18:-1 19:-1 20:-1 21:1 22:-1 23:-1 24:-1 25:0.99452 26:-1 27:-1 28:0.976621 29:-0.492798 30:1 31:-0.370195 32:-0.940252 33:-0.855143 34:-1 35:-1 36:-1 37:0.996753 38:-1 39:-1 40:-1 41:0.997261 
-0.92857456355729351 -0.29997818263783194 2 1:-1 2:-1 3:0.10119 4:0.272116 5:-0.650498 6:-0.797282 7:0.180482 8:-0.1089 9:-0.665818 10:-0.724008 11:-0.281683 12:-0.238447 13:-0.41003 14:-1 15:0.393035 16:0.0837943 17:-0.919756 18:-0.355913 19:0.0436693 20:-0.749838 21:-0.0988104 22:-1 23:-0.96788 24:0.647628 25:0.0385221 26:-0.678308 27:-0.47578 28:0.391335 29:-0.658964 30:-0.0676985 31:-0.131701 32:-0.22015 33:-0.885412 34:-1 35:-1 36:0.203844 37:0.0396844 38:-1 39:-0.779742 40:1 41:-0.650018 
-0.22895395997205065 -0.21859082257015969 1.7470534315401531 1:-1 2:-0.849684 3:-0.443609 4:-0.368315 5:0.0986461 6:0.814611 7:-0.0730373 8:-0.954386 9:-0.947625 10:1 11:-0.596786 12:-0.874118 13:-0.925951 14:1 15:-0.91579 16:-0.565106 17:-0.798387 18:0.259515 19:-0.569589 20:-0.632437 21:-0.184344 22:-0.386297 23:-0.694183 24:0.100851 25:0.0880825 26:-0.810935 27:0.917229 28:-0.831784 29:-0.511885 30:0.7484 31:-0.879532 32:-0.575001 33:-0.480474 34:-0.459616 35:-0.180312 36:0.499064 37:-0.830788 38:-0.77849 39:1 40:-0.0319918 41:-0.947108 
-1.620267695793663 -2 2 1:-1 2:-0.843077 3:-0.517169 4:-0.2574 5:0.0498906 6:0.301953 7:-0.435503 8:-0.622223 9:-0.80863 10:-0.103874 11:-0.478685 12:-0.264077 13:-0.737167 14:-0.843407 15:-0.179488 16:-0.518473 17:-0.860422 18:-0.577516 19:-0.671795 20:0.375252 21:-0.473614 22:-1 23:-0.900675 24:0.448046 25:0.127087 26:-0.917102 27:-0.490526 28:-0.119025 29:-0.0539698 30:-0.301099 31:-0.2297 32:-0.324039 33:-0.367245 34:-1 35:-1 36:0.124553 37:0.0974363 38:-1 39:-0.914862 40:-0.0702869 41:0.236863 
-0 -0.36576238329845379 1.5206428201727238 1:1 2:-0.786512 3:-0.923173 4:-0.666273 5:-0.521553 6:-0.74488 7:-0.132469 8:-0.546511 9:-0.85536 10:-0.145306 11:-0.503194 12:-0.735795 13:-0.485839 14:-0.783015 15:-0.178293 16:0.237411 17:-0.78901 18:0.00357785 19:0.302325 20:-0.740141 21:-0.438328 22:-0.186488 23:0.126072 24:0.236325 25:-0.299834 26:0.420185 27:0.207711 28:-0.53545 29:-0.988278 30:-0.768896 31:0.546997 32:-0.226745 33:-0.846962 34:-1 35:-0.359543 36:0.348201 37:-0.415874 38:0.468151 39:-0.50666 40:-0.679207 41:-0.333929 
-1.3290425026286825 -1.6032586596245699 1.7572805252061008 1:-0.748538 2:0.728333 3:-0.977059 4:-0.855048 5:-0.121875 6:-1 7:-0.592307 8:-0.558642 9:0.675812 10:0.540957 11:-0.46798 12:-0.684423 13:-0.916254 14:-1 15:0.444445 16:-0.147965 17:-0.775986 18:-1 19:1 20:-0.612016 21:-0.412974 22:-1 23:-0.910331 24:-0.370576 25:0.602927 26:-0.900216 27:-0.47734 28:0.294715 29:-0.38396 30:-1 31:-0.0661646 32:0.236979 33:-0.520162 34:-0.211941 35:-0.472421 36:0.540335 37:-0.804643 38:-1 39:-1 40:0.0765245 41:0.172441 
-0.25783250417212122 -0 0.94857638100718411 1:-0.959314 2:0.650336 3:-0.70305 4:-0.399019 5:-0.4813 6:-0.75348 7:-0.16171 8:-0.0424464 9:-0.399014 10:-0.0338713 11:-0.65237 12:-0.516275 13:-0.762876 14:-0.847512 15:-0.400749 16:0.67398 17:-0.886734 18:-0.404928 19:0.538076 20:-0.497802 21:-0.53641 22:-0.388595 23:-0.492214 24:-0.177453 25:0.195266 26:-0.878913 27:0.792786 28:-0.25185 29:-0.830101 30:-0.633128 31:0.253745 32:-0.426264 33:-0.389997 34:-0.969641 35:-0.466496 36:0.529323 37:-0.514586 38:-1 39:-0.689102 40:0.84512 41:-0.582212 
-0 -0 2 1:-1 2:-0.817654 3:-0.593974 4:-0.285767 5:0.110097 6:-0.194531 7:-0.344049 8:0.0167584 9:-0.888813 10:0.549564 11:-0.835387 12:-0.545701 13:-0.966314 14:-0.924182 15:0.430168 16:-0.0627712 17:-0.876104 18:-0.167166 19:0.211669 20:-0.84394 21:-0.325365 22:-1 23:0.0820348 24:0.558002 25:-0.23751 26:-1 27:0.0427525 28:0.309387 29:-0.684627 30:-0.873105 31:-0.37663 32:-0.0712298 33:-0.0441512 34:-1 35:-0.0662754 36:-0.281855 37:-0.068272 38:-0.786252 39:0.154201 40:0.291708 41:-0.730517 
-2 -1.1093181373930503 0.047346820844297755 1:-0.66602 2:0.703302 3:-0.438713 4:-0.860677 5:-0.473855 6:-0.726127 7:0.614936 8:-0.705501 9:-0.637699 10:-0.380625 11:-0.513672 12:-0.558803 13:-0.717052 14:-0.390602 15:-0.456312 16:0.276279 17:-0.843407 18:0.904406 19:-0.482201 20:-0.688108 21:-0.511492 22:1 23:-0.373191 24:-0.475404 25:-0.064633 26:0.429916 27:-0.254675 28:-0.456975 29:-0.774899 30:-0.641643 31:1 32:-0.711772 33:-0.840276 34:-1 35:-0.741845 36:0.260274 37:-0.141621 38:-1 39:-0.892544 40:-0.0434029 41:0.209844 
-1.8077781552767045 -0.31973297851371274 1.1638757710145859 1:-0.725975 2:-0.603027 3:1 4:-0.619207 5:-0.858957 6:-0.728923 7:-0.590103 8:0.92072 9:-0.838629 10:0.0345231 11:-0.108065 12:-0.650933 13:-0.956543 14:0.760617 15:-0.192792 16:-0.945861 17:-0.705754 18:-0.681913 19:-0.346546 20:0.540188 21:-0.662743 22:-0.747884 23:-0.0577533 24:0.300196 25:-0.110348 26:1 27:-0.414167 28:-0.95681 29:-0.738448 30:0.0743225 31:0.221772 32:-0.743243 33:-0.751002 34:-1 35:-0.897336 36:0.784821 37:-0.478646 38:-1 39:-0.900289 40:0.164599 41:0.0538392 
-0.73874041279159663 -0.31227107659211006 0.9960126705026402 1:-0.923364 2:0.705395 3:-0.33579 4:-0.779121 5:-0.45839 6:-0.46932 7:0.138949 8:-0.25103 9:-0.789392 10:0.306143 11:-0.532291 12:-0.658321 13:-0.766044 14:-0.856387 15:-0.590829 16:-0.536308 17:-0.178615 18:0.826616 19:-0.661376 20:-0.51225 21:-0.488849 22:-1 23:-0.487608 24:0.217344 25:0.13632 26:-1 27:0.322081 28:0.211923 29:-0.797321 30:0.0966535 31:0.377571 32:-0.824074 33:-0.825909 34:-0.313798 35:-0.678429 36:0.547004 37:-0.851156 38:-1 39:-1 40:-0.513435 41:0.627063 
-0 -0 0.68309278696982767 1:-1 2:-1 3:-1 4:0.347108 5:-0.0400616 6:-0.659311 7:0.249667 8:-0.0579713 9:-0.905355 10:-0.261347 11:-0.423498 12:-0.129091 13:-0.923536 14:-0.336181 15:-0.579709 16:0.48331 17:-0.901385 18:-0.189798 19:-0.864734 20:-0.878544 21:-0.376513 22:-0.957752 23:1 24:0.23148 25:-0.345497 26:-0.863339 27:-0.836385 28:0.867285 29:-0.616498 30:-0.799398 31:0.30616 32:-0.367528 33:-0.338359 34:-1 35:-0.483889 36:1 37:-0.868953 38:-0.625709 39:0.624102 40:-0.228901 41:-0.6723 
-0 -0.34010189229597032 -0.052647105700467482 1:-1 2:-1 3:-0.858602 4:1 5:-0.625126 6:-0.195076 7:0.532415 8:-0.808906 9:-0.883838 10:0.694452 11:-0.4726 12:-0.767339 13:-0.945256 14:0.240967 15:0.276264 16:-0.766169 17:-0.882327 18:-0.96947 19:-0.612626 20:1 21:-0.812048 22:-1 23:-0.974879 24:0.220791 25:0.288632 26:-0.916135 27:0.124554 28:0.285071 29:-0.780345 30:-0.955809 31:-0.666017 32:0.266051 33:0.0882382 34:-1 35:-0.866976 36:-0.901924 37:0.853017 38:-1 39:-0.928223 40:-0.621728 41:0.673614 
-0 -0 -0.81839649341240295 1:-1 2:-1 3:-0.96473 4:0.513485 5:-0.185714 6:0.349658 7:-0.47769 8:-0.804666 9:-0.929173 10:-0.022782 11:-0.758822 12:-0.957442 13:-0.985695 14:0.436834 15:-0.516013 16:-0.759408 17:-0.899552 18:-1 19:-0.746935 20:-0.154998 21:0.253435 22:-1 23:-1 24:-1 25:1 26:-1 27:-0.785728 28:0.592362 29:-0.339915 30:-1 31:-0.327996 32:0.656584 33:-0.789232 34:0.153845 35:0.960111 36:-0.596354 37:-0.785474 38:-0.645985 39:0.601771 40:0.178146 41:-0.957084 
-2 -1.1221962324029571 -2 1:-0.879298 2:-0.779 3:-0.697172 4:0.402411 5:-0.439672 6:-0.791045 7:-0.215193 8:0.25185 9:-0.564634 10:-0.156326 11:-0.312469 12:-0.61134 13:-0.748762 14:-0.985863 15:-0.0222213 16:0.251969 17:-0.747984 18:-0.934615 19:-0.496295 20:0.0708329 21:-0.111076 22:-1 23:-0.757895 24:-0.898324 25:0.864971 26:-0.805421 27:-0.448071 28:0.120852 29:-0.319556 30:-0.656921 31:-0.332408 32:-0.297396 33:0.0967733 34:-1 35:-0.905036 36:0.312785 37:-0.0957746 38:-1 39:-1 40:-0.0366004 41:0.264563 
-0.84060123006169074 -0.079252019889334099 -2 1:-1 2:-0.95454 3:-0.107391 4:0.0465614 5:-0.368226 6:-0.476156 7:-0.230041 8:-0.348189 9:-0.715878 10:-0.775939 11:-0.770184 12:-0.120581 13:-0.468132 14:-0.820434 15:-0.27948 16:0.10201 17:-0.561956 18:-0.934433 19:-0.544412 20:0.813038 21:-0.59074 22:-1 23:-1 24:-0.0580913 25:0.459231 26:-0.749845 27:0.962293 28:-0.347131 29:-0.960688 30:-0.628284 31:-0.474002 32:0.0386496 33:-0.193459 34:-0.909685 35:-0.851867 36:0.720151 37:-0.479462 38:-0.872108 39:0.736756 40:-0.151018 41:-0.658486 
-0.36269249863425829 -1.4224231255780424 -0 1:-1 2:-1 3:-1 4:0.146872 5:0.117531 6:-1 7:-0.982079 8:1 9:-0.261861 10:0.0668148 11:-0.546682 12:-0.877346 13:-0.977913 14:-1 15:-0.873016 16:0.476682 17:-0.276262 18:-1 19:-1 20:0.268832 21:0.091112 22:-1 23:-1 24:-0.859537 25:0.918917 26:-1 27:-0.922807 28:1 29:-0.556895 30:-1 31:-0.98952 32:0.618133 33:0.0244586 34:-1 35:-1 36:-0.381404 37:0.508883 38:-1 39:-1 40:-0.00869161 41:0.244225 
-0.23695633168232269 -0.60949947993984688 -0.49511136729243399 1:-1 2:-1 3:-1 4:-1 5:1 6:-0.620759 7:0.540815 8:-0.557928 9:-0.822932 10:-0.792711 11:0.237349 12:-0.148842 13:-0.864099 14:-0.106509 15:-0.259787 16:-0.483172 17:-0.677133 18:-1 19:-1 20:0.550828 21:-0.111852 22:-1 23:-1 24:-0.888348 25:0.935715 26:-1 27:-0.453605 28:0.980973 29:-0.856503 30:-1 31:-0.633452 32:0.783364 33:-0.613591 34:1 35:0.0138515 36:-0.354165 37:-0.792625 38:-0.822992 39:-0.356667 40:0.58021 41:-0.64952 
-2 -2 -2 1:-1 2:-0.067932 3:-0.373461 4:-0.032819 5:-0.584728 6:-0.648739 7:-0.462267 8:0.220307 9:-0.399496 10:-0.24679 11:0.473283 12:-0.814433 13:-0.956683 14:-0.50277 15:-0.666667 16:0.100869 17:-0.426446 18:0.555704 19:0.0268196 20:-0.747142 21:-0.626964 22:-1 23:-1 24:-0.624349 25:0.782205 26:-0.845163 27:0.245734 28:0.102102 29:-0.747984 30:-0.730758 31:-0.0257429 32:-0.160561 33:-0.319242 34:-1 35:-1 36:-0.858762 37:0.888133 38:-1 39:-1 40:-0.535666 41:0.64604 
-0.61842221724298796 -0.1886279774508364 -2 1:-0.972568 2:-0.42818 3:-0.0739984 4:-0.248884 5:-0.437392 6:-0.57259 7:0.0562933 8:-0.146464 9:-0.670177 10:-0.0228929 11:-0.810259 12:-0.818807 13:-0.489911 14:-0.306008 15:0.0707067 16:-0.630101 17:-0.679252 18:-0.271853 19:0.441077 20:-0.0688411 21:-0.85515 22:-1 23:-1 24:0.360083 25:0.216451 26:-0.632612 27:0.619298 28:-0.112196 29:-0.954179 30:-0.956981 31:0.0187303 32:0.28646 33:-0.725806 34:0.146269 35:1 36:-0.894977 37:-0.566155 38:1 39:0.271698 40:-0.751188 41:-0.946707 
-1.5672166348776919 -1.2652760973227239 -2 1:-1 2:-0.66 3:0.0588383 4:-0.155375 5:-0.459615 6:-0.447474 7:-0.0591725 8:-0.24074 9:-0.569418 10:0.342409 11:-0.631679 12:-0.892678 13:-0.922696 14:-0.467149 15:0.735043 16:-0.64688 17:-0.903071 18:-0.358726 19:-0.407406 20:0.217669 21:-0.535541 22:-0.975085 23:-0.648223 24:1 25:-0.26662 26:-0.907892 27:0.128947 28:0.203658 29:-0.715673 30:-0.144575 31:0.164618 32:-0.4367 33:-0.883995 34:-1 35:-0.780852 36:-0.636459 37:0.597208 38:-1 39:-0.798979 40:-0.435771 41:0.462331 
-0.089811952633039815 -0.44642516067207272 -2 1:-1 2:-1 3:-1 4:-0.562103 5:0.663262 6:-0.210939 7:0.0178056 8:-0.484848 9:-0.965206 10:0.0377212 11:-0.433352 12:-0.222262 13:-0.936751 14:-0.644106 15:-0.384616 16:0.278235 17:-0.696875 18:-1 19:-1 20:-0.247909 21:0.463752 22:-1 23:-1 24:-0.256474 25:0.572029 26:-0.284065 27:1 28:-0.692682 29:-0.964753 30:-1 31:0.180457 32:-0.00349719 33:-0.459281 34:-1 35:-0.53514 36:0.286715 37:-0.269314 38:0.0301018 39:-0.109918 40:0.175921 41:-0.922696 
-1.1978261835558466 -1.2011634462478675 -1.4977262408522092 1:-1 2:-1 3:-1 4:-1 5:-1 6:-1 7:-1 8:-1 9:-1 10:-1 11:-1 12:-1 13:-1 14:-1 15:-1 16:-1 17:-1 18:-1 19:-1 20:-1 21:-1 22:-1 23:-1 24:-1 25:-1 26:-1 27:-1 28:-1 29:-1 30:-1 31:-1 32:-1 33:-1 34:-1 35:-1 36:-1 37:-1 38:-1 39:-1 40:-1 41:-1 
